{
  "provenance": {
    "torch_version": "2.13.0",
    "platform": "macOS-26.5.1-arm64-arm-64bit-Mach-O",
    "note": "burn-layout [d_in,d_out], row-major; regenerate with `uv run reference/flow_reference.py` (`just flow-reference`)"
  },
  "hyperparams": {
    "latent_dim": 3,
    "hidden": 4,
    "rank": 2,
    "alpha": 4.0,
    "scaling": 2.0,
    "lr": 0.1,
    "steps": 20,
    "batch": 4,
    "sampler_symmetric": {
      "logit_mean": 0.0,
      "logit_std": 1.0,
      "shift": 3.0
    },
    "sampler_asymmetric": {
      "logit_mean": 0.5,
      "logit_std": 2.0,
      "shift": 1.5
    },
    "resolution_seq_lens": [
      256,
      1024,
      4096
    ]
  },
  "sampler": {
    "u": [
      -2.5,
      -1.0,
      -0.3,
      0.0,
      0.4,
      1.0,
      2.0,
      3.0
    ],
    "symmetric": {
      "t_sigmoid": [
        0.07585818002124355,
        0.2689414213699951,
        0.425557483188341,
        0.5,
        0.598687660112452,
        0.7310585786300049,
        0.8807970779778823,
        0.9525741268224334
      ],
      "t_shifted": [
        0.19759599495081875,
        0.5246331135813282,
        0.6896775579876295,
        0.75,
        0.8173674127520131,
        0.8907682274269642,
        0.9568354670200038,
        0.983675231335246
      ]
    },
    "asymmetric": {
      "t_shifted": [
        0.016390373897039397,
        0.2507652909339912,
        0.5757779612817111,
        0.7120712879653153,
        0.8462471623329674,
        0.9481159364412807,
        0.9926484478858297,
        0.9989987107896432
      ]
    }
  },
  "resolution_shift": [
    {
      "seq_len": 256,
      "shift": 1.6487212707001282
    },
    {
      "seq_len": 1024,
      "shift": 1.8776105792643432
    },
    {
      "seq_len": 4096,
      "shift": 3.158192909689767
    }
  ],
  "interp": {
    "x0": [
      1.5,
      -0.6000000238418579,
      0.800000011920929,
      -1.2000000476837158,
      0.8999999761581421,
      -0.4000000059604645,
      0.30000001192092896,
      -1.0,
      1.100000023841858,
      -0.699999988079071,
      0.5,
      -1.2999999523162842
    ],
    "eps": [
      0.4000000059604645,
      1.100000023841858,
      -0.8999999761581421,
      -0.5,
      -1.399999976158142,
      0.699999988079071,
      1.2000000476837158,
      0.20000000298023224,
      -0.6000000238418579,
      -0.30000001192092896,
      0.800000011920929,
      1.0
    ],
    "t": [
      0.15000000596046448,
      0.4000000059604645,
      0.6499999761581421,
      0.8999999761581421
    ],
    "x_t": [
      1.3350000381469727,
      -0.3450000286102295,
      0.5450000166893005,
      -0.9200000166893005,
      -0.019999980926513672,
      0.03999999165534973,
      0.8850000500679016,
      -0.2200000286102295,
      -0.004999995231628418,
      -0.3400000333786011,
      0.7699999809265137,
      0.7699999809265137
    ],
    "v_target": [
      -1.100000023841858,
      1.7000000476837158,
      -1.7000000476837158,
      0.7000000476837158,
      -2.299999952316284,
      1.100000023841858,
      0.9000000357627869,
      1.2000000476837158,
      -1.7000000476837158,
      0.3999999761581421,
      0.30000001192092896,
      2.299999952316284
    ]
  },
  "train": {
    "fc1_weight_final": [
      0.30000001192092896,
      -0.20000000298023224,
      0.44999998807907104,
      0.10000000149011612,
      -0.25,
      0.3499999940395355,
      -0.15000000596046448,
      0.4000000059604645,
      0.20000000298023224,
      0.15000000596046448,
      -0.30000001192092896,
      -0.3499999940395355,
      0.5,
      -0.4000000059604645,
      0.25,
      0.30000001192092896
    ],
    "fc1_bias_final": [
      0.10000000149011612,
      -0.15000000596046448,
      0.20000000298023224,
      0.05000000074505806
    ],
    "base_final": [
      0.10000000149011612,
      -0.20000000298023224,
      0.30000001192092896,
      0.4000000059604645,
      0.5,
      -0.6000000238418579,
      -0.699999988079071,
      0.800000011920929,
      0.8999999761581421,
      0.15000000596046448,
      -0.25,
      0.3499999940395355
    ],
    "lora_a_final": [
      0.34911778569221497,
      0.03424076735973358,
      -0.30000001192092896,
      0.4000000059604645,
      0.9263227581977844,
      -0.9943753480911255,
      0.5576646327972412,
      1.021188735961914
    ],
    "lora_b_final": [
      0.25594058632850647,
      0.3481614589691162,
      -0.6016553044319153,
      0.12593147158622742,
      -0.22651299834251404,
      0.9988647699356079
    ],
    "losses": [
      2.49715518951416,
      2.346557378768921,
      2.20440673828125,
      2.058387517929077,
      1.9052814245224,
      1.7493505477905273,
      1.6004732847213745,
      1.4702156782150269,
      1.3665857315063477,
      1.2906049489974976,
      1.2371256351470947,
      1.1986418962478638,
      1.1686959266662598,
      1.1431186199188232,
      1.1196922063827515,
      1.0973870754241943,
      1.0757743120193481,
      1.054694652557373,
      1.034103274345398,
      1.0140019655227661
    ]
  }
}
